<?xml version="1.0"?>
<opencv_storage>
<cascade>
  <stageType>BOOST</stageType>
  <featureType>HAAR</featureType>
  <height>50</height>
  <width>50</width>
  <stageParams>
    <boostType>GAB</boostType>
    <minHitRate>9.9500000476837158e-01</minHitRate>
    <maxFalseAlarm>5.0000000000000000e-01</maxFalseAlarm>
    <weightTrimRate>9.4999998807907104e-01</weightTrimRate>
    <maxDepth>1</maxDepth>
    <maxWeakCount>100</maxWeakCount></stageParams>
  <featureParams>
    <maxCatCount>0</maxCatCount>
    <featSize>1</featSize>
    <mode>BASIC</mode></featureParams>
  <stageNum>7</stageNum>
  <stages>
    <!-- stage 0 -->
    <_>
      <maxWeakCount>2</maxWeakCount>
      <stageThreshold>-1.6683185100555420e-01</stageThreshold>
      <weakClassifiers>
        <_>
          <internalNodes>
            0 -1 16 -1.8543479964137077e-02</internalNodes>
          <leafValues>
            7.9661017656326294e-01 -9.8648649454116821e-01</leafValues></_>
        <_>
          <internalNodes>
            0 -1 13 -5.3612310439348221e-03</internalNodes>
          <leafValues>
            8.7083584070205688e-01 -9.6344202756881714e-01</leafValues></_></weakClassifiers></_>
    <!-- stage 1 -->
    <_>
      <maxWeakCount>2</maxWeakCount>
      <stageThreshold>-2.7967879176139832e-01</stageThreshold>
      <weakClassifiers>
        <_>
          <internalNodes>
            0 -1 0 1.4004878699779510e-02</internalNodes>
          <leafValues>
            -9.5394736528396606e-01 8.8235294818878174e-01</leafValues></_>
        <_>
          <internalNodes>
            0 -1 8 -3.8244865834712982e-02</internalNodes>
          <leafValues>
            6.7426860332489014e-01 -9.9278789758682251e-01</leafValues></_></weakClassifiers></_>
    <!-- stage 2 -->
    <_>
      <maxWeakCount>2</maxWeakCount>
      <stageThreshold>-2.6943543553352356e-01</stageThreshold>
      <weakClassifiers>
        <_>
          <internalNodes>
            0 -1 10 -1.5618259087204933e-02</internalNodes>
          <leafValues>
            8.1132078170776367e-01 -9.5364236831665039e-01</leafValues></_>
        <_>
          <internalNodes>
            0 -1 4 2.5179632008075714e-02</internalNodes>
          <leafValues>
            -9.9247324466705322e-01 6.8420696258544922e-01</leafValues></_></weakClassifiers></_>
    <!-- stage 3 -->
    <_>
      <maxWeakCount>3</maxWeakCount>
      <stageThreshold>-1.0863353013992310e+00</stageThreshold>
      <weakClassifiers>
        <_>
          <internalNodes>
            0 -1 3 -1.9189599156379700e-01</internalNodes>
          <leafValues>
            7.8571426868438721e-01 -9.6655517816543579e-01</leafValues></_>
        <_>
          <internalNodes>
            0 -1 14 1.6187079250812531e-02</internalNodes>
          <leafValues>
            -9.0355664491653442e-01 9.2589783668518066e-01</leafValues></_>
        <_>
          <internalNodes>
            0 -1 7 -6.4659222960472107e-02</internalNodes>
          <leafValues>
            7.8377658128738403e-01 -9.7848767042160034e-01</leafValues></_></weakClassifiers></_>
    <!-- stage 4 -->
    <_>
      <maxWeakCount>3</maxWeakCount>
      <stageThreshold>-8.4754925966262817e-01</stageThreshold>
      <weakClassifiers>
        <_>
          <internalNodes>
            0 -1 6 6.3004447147250175e-03</internalNodes>
          <leafValues>
            -9.1612905263900757e-01 8.6666667461395264e-01</leafValues></_>
        <_>
          <internalNodes>
            0 -1 2 5.7285502552986145e-03</internalNodes>
          <leafValues>
            -8.3383190631866455e-01 9.4005805253982544e-01</leafValues></_>
        <_>
          <internalNodes>
            0 -1 12 1.3839405030012131e-02</internalNodes>
          <leafValues>
            -8.7147825956344604e-01 9.6877133846282959e-01</leafValues></_></weakClassifiers></_>
    <!-- stage 5 -->
    <_>
      <maxWeakCount>3</maxWeakCount>
      <stageThreshold>-1.1359244585037231e+00</stageThreshold>
      <weakClassifiers>
        <_>
          <internalNodes>
            0 -1 1 -4.6341784298419952e-02</internalNodes>
          <leafValues>
            1. -9.2926043272018433e-01</leafValues></_>
        <_>
          <internalNodes>
            0 -1 11 -1.7324391752481461e-02</internalNodes>
          <leafValues>
            8.8529425859451294e-01 -9.1570770740509033e-01</leafValues></_>
        <_>
          <internalNodes>
            0 -1 15 -4.1507892310619354e-02</internalNodes>
          <leafValues>
            7.0904374122619629e-01 -1.</leafValues></_></weakClassifiers></_>
    <!-- stage 6 -->
    <_>
      <maxWeakCount>2</maxWeakCount>
      <stageThreshold>-1.9257633388042450e-01</stageThreshold>
      <weakClassifiers>
        <_>
          <internalNodes>
            0 -1 9 -2.4206725880503654e-02</internalNodes>
          <leafValues>
            7.6271188259124756e-01 -9.7972971200942993e-01</leafValues></_>
        <_>
          <internalNodes>
            0 -1 5 1.8681352958083153e-02</internalNodes>
          <leafValues>
            -9.5528817176818848e-01 8.3613336086273193e-01</leafValues></_></weakClassifiers></_></stages>
  <features>
    <_>
      <rects>
        <_>
          0 29 15 9 -1.</_>
        <_>
          5 29 5 9 3.</_></rects>
      <tilted>0</tilted></_>
    <_>
      <rects>
        <_>
          2 3 24 16 -1.</_>
        <_>
          2 3 12 8 2.</_>
        <_>
          14 11 12 8 2.</_></rects>
      <tilted>0</tilted></_>
    <_>
      <rects>
        <_>
          2 12 24 1 -1.</_>
        <_>
          10 12 8 1 3.</_></rects>
      <tilted>0</tilted></_>
    <_>
      <rects>
        <_>
          2 14 45 36 -1.</_>
        <_>
          2 32 45 18 2.</_></rects>
      <tilted>0</tilted></_>
    <_>
      <rects>
        <_>
          2 42 22 6 -1.</_>
        <_>
          13 42 11 6 2.</_></rects>
      <tilted>0</tilted></_>
    <_>
      <rects>
        <_>
          6 36 18 10 -1.</_>
        <_>
          6 36 9 5 2.</_>
        <_>
          15 41 9 5 2.</_></rects>
      <tilted>0</tilted></_>
    <_>
      <rects>
        <_>
          7 24 12 4 -1.</_>
        <_>
          11 24 4 4 3.</_></rects>
      <tilted>0</tilted></_>
    <_>
      <rects>
        <_>
          17 24 29 18 -1.</_>
        <_>
          17 33 29 9 2.</_></rects>
      <tilted>0</tilted></_>
    <_>
      <rects>
        <_>
          19 8 14 18 -1.</_>
        <_>
          19 14 14 6 3.</_></rects>
      <tilted>0</tilted></_>
    <_>
      <rects>
        <_>
          22 27 16 15 -1.</_>
        <_>
          22 32 16 5 3.</_></rects>
      <tilted>0</tilted></_>
    <_>
      <rects>
        <_>
          24 38 18 8 -1.</_>
        <_>
          24 38 9 4 2.</_>
        <_>
          33 42 9 4 2.</_></rects>
      <tilted>0</tilted></_>
    <_>
      <rects>
        <_>
          31 31 14 14 -1.</_>
        <_>
          31 31 7 7 2.</_>
        <_>
          38 38 7 7 2.</_></rects>
      <tilted>0</tilted></_>
    <_>
      <rects>
        <_>
          33 5 10 12 -1.</_>
        <_>
          33 5 5 6 2.</_>
        <_>
          38 11 5 6 2.</_></rects>
      <tilted>0</tilted></_>
    <_>
      <rects>
        <_>
          34 22 8 8 -1.</_>
        <_>
          38 22 4 8 2.</_></rects>
      <tilted>0</tilted></_>
    <_>
      <rects>
        <_>
          38 4 8 28 -1.</_>
        <_>
          38 4 4 14 2.</_>
        <_>
          42 18 4 14 2.</_></rects>
      <tilted>0</tilted></_>
    <_>
      <rects>
        <_>
          39 22 11 28 -1.</_>
        <_>
          39 36 11 14 2.</_></rects>
      <tilted>0</tilted></_>
    <_>
      <rects>
        <_>
          42 11 8 31 -1.</_>
        <_>
          46 11 4 31 2.</_></rects>
      <tilted>0</tilted></_></features></cascade>
</opencv_storage>
